digraph Tree {
node [shape=box, style="filled", color="black", fontname="helvetica"] ;
edge [fontname="helvetica"] ;
0 [label="x[0] <= 2.006\nsquared_error = 305.074\nsamples = 240\nvalue = 8.911", fillcolor="#fbeadf"] ;
1 [label="x[0] <= -1.364\nsquared_error = 107.39\nsamples = 209\nvalue = 3.583", fillcolor="#fdf4ee"] ;
0 -> 1 [labeldistance=2.5, labelangle=45, headlabel="True"] ;
2 [label="x[0] <= -2.275\nsquared_error = 92.662\nsamples = 57\nvalue = 11.391", fillcolor="#fae6d8"] ;
1 -> 2 ;
3 [label="x[0] <= -2.463\nsquared_error = 32.782\nsamples = 8\nvalue = 24.472", fillcolor="#f5ceb3"] ;
2 -> 3 ;
4 [label="squared_error = 0.0\nsamples = 1\nvalue = 16.472", fillcolor="#f8ddc9"] ;
3 -> 4 ;
5 [label="squared_error = 27.017\nsamples = 7\nvalue = 25.615", fillcolor="#f5ccaf"] ;
3 -> 5 ;
6 [label="x[0] <= -1.432\nsquared_error = 69.938\nsamples = 49\nvalue = 9.255", fillcolor="#fbeade"] ;
2 -> 6 ;
7 [label="squared_error = 62.642\nsamples = 45\nvalue = 8.398", fillcolor="#fbebe0"] ;
6 -> 7 ;
8 [label="squared_error = 50.894\nsamples = 4\nvalue = 18.892", fillcolor="#f7d8c2"] ;
6 -> 8 ;
9 [label="x[0] <= 1.393\nsquared_error = 81.48\nsamples = 152\nvalue = 0.655", fillcolor="#fef9f6"] ;
1 -> 9 ;
10 [label="x[0] <= 0.048\nsquared_error = 65.85\nsamples = 132\nvalue = -1.014", fillcolor="#fefcfb"] ;
9 -> 10 ;
11 [label="squared_error = 68.179\nsamples = 62\nvalue = 0.626", fillcolor="#fef9f6"] ;
10 -> 11 ;
12 [label="squared_error = 59.293\nsamples = 70\nvalue = -2.467", fillcolor="#ffffff"] ;
10 -> 12 ;
13 [label="x[0] <= 1.728\nsquared_error = 44.896\nsamples = 20\nvalue = 11.671", fillcolor="#fae6d7"] ;
9 -> 13 ;
14 [label="squared_error = 53.25\nsamples = 14\nvalue = 10.17", fillcolor="#fae8db"] ;
13 -> 14 ;
15 [label="squared_error = 7.892\nsamples = 6\nvalue = 15.172", fillcolor="#f8dfcd"] ;
13 -> 15 ;
16 [label="x[0] <= 2.334\nsquared_error = 155.842\nsamples = 31\nvalue = 44.836", fillcolor="#edaa79"] ;
0 -> 16 [labeldistance=2.5, labelangle=-45, headlabel="False"] ;
17 [label="x[0] <= 2.157\nsquared_error = 92.793\nsamples = 21\nvalue = 38.62", fillcolor="#f0b58b"] ;
16 -> 17 ;
18 [label="x[0] <= 2.083\nsquared_error = 60.188\nsamples = 6\nvalue = 28.022", fillcolor="#f4c8a9"] ;
17 -> 18 ;
19 [label="squared_error = 25.909\nsamples = 4\nvalue = 32.636", fillcolor="#f2c09c"] ;
18 -> 19 ;
20 [label="squared_error = 1.02\nsamples = 2\nvalue = 18.794", fillcolor="#f7d9c3"] ;
18 -> 20 ;
21 [label="x[0] <= 2.217\nsquared_error = 42.943\nsamples = 15\nvalue = 42.859", fillcolor="#eead7f"] ;
17 -> 21 ;
22 [label="squared_error = 23.537\nsamples = 4\nvalue = 39.589", fillcolor="#efb388"] ;
21 -> 22 ;
23 [label="squared_error = 44.7\nsamples = 11\nvalue = 44.048", fillcolor="#eeab7b"] ;
21 -> 23 ;
24 [label="x[0] <= 2.34\nsquared_error = 36.688\nsamples = 10\nvalue = 57.89", fillcolor="#e99254"] ;
16 -> 24 ;
25 [label="squared_error = 0.0\nsamples = 1\nvalue = 67.405", fillcolor="#e58139"] ;
24 -> 25 ;
26 [label="x[0] <= 2.452\nsquared_error = 29.586\nsamples = 9\nvalue = 56.833", fillcolor="#e99457"] ;
24 -> 26 ;
27 [label="squared_error = 24.621\nsamples = 7\nvalue = 55.139", fillcolor="#ea975c"] ;
26 -> 27 ;
28 [label="squared_error = 1.772\nsamples = 2\nvalue = 62.762", fillcolor="#e78946"] ;
26 -> 28 ;
}